SVM-light Version V3.50
4 # kernel type
1 # kernel parameter -d 
1 # kernel parameter -g 
1 # kernel parameter -s 
0 # kernel parameter -r 
面面面面面面面面面面面面面面面面面面面面面面面面面面面面 # kernel parameter -u 
8 # highest feature index 
468 # number of training documents 
320 # number of support vectors plus 1 
0.86749735 # threshold b 
-0.0033366261906936719 1:0.34275699 2:1.066709 3:0.769512 4:1.4708641 5:4.0366569 6:0.85074699 7:0.444042 8:0.064548999 
0.0033366261906936719 1:-0.84433502 2:-0.18436199 3:0.046215001 4:0.593243 5:0.140576 6:0.33071601 7:0.172408 8:-0.105515 
0.0033366261906936719 1:-0.84433502 2:2.349056 3:0.35620001 4:0.96936601 5:1.468194 6:0.571706 7:1.216689 8:-0.360612 
0.0033366261906936719 1:2.7169421 2:0.159683 3:1.079497 4:-1.2873729 5:-0.69243902 6:1.446879 7:0.335388 8:0.74480802 
-0.0033366261906936719 1:-0.25078899 2:-1.279049 3:-3.570271 4:-1.2873729 5:-0.69243902 6:-4.0578289 7:-0.89903599 8:-0.95583898 
0.0033366261906936719 1:0.63953 2:0.128406 3:0.35620001 4:-1.2873729 5:-0.69243902 6:0.229247 7:-1.058998 8:1.765196 
-0.0033366261906936719 1:-0.547562 2:-0.90372699 3:0.35620001 4:-0.033629 5:-0.69243902 6:-0.98838401 7:3.700628 8:-0.445645 
0.0033366261906936719 1:0.63953 2:-3.7811899 3:-0.057112999 4:1.282802 5:-0.69243902 6:0.88879699 7:0.77000201 8:0.65977597 
-0.0033366261906936719 1:-1.141108 2:-0.46585301 3:0.046215001 4:1.032053 5:0.59179199 6:0.93953198 7:0.401788 8:-0.95583898 
0.0033366261906936719 1:1.233077 2:0.37862 3:0.149543 4:-1.2873729 5:-0.69243902 6:0.115094 7:-0.60929298 8:0.48971099 
0.0033366261906936719 1:-1.141108 2:0.753941 3:-3.570271 4:-1.2873729 5:-0.69243902 6:1.5483479 7:0.47724101 8:-0.190548 
-0.0033366261906936719 1:2.7169421 2:1.004155 3:0.97616899 4:1.032053 5:0.52237397 6:1.091736 7:2.1191161 8:0.48971099 
0.0033366261906936719 1:1.233077 2:0.128406 3:1.3894809 4:-1.2873729 5:-0.69243902 6:-4.0578289 7:-0.72398299 8:1.765196 
-0.0033366261906936719 1:0.63953 2:-0.434576 3:0.97616899 4:-1.2873729 5:-0.69243902 6:0.60975701 7:0.77000201 8:-0.190548 
0.0033366261906936719 1:2.7169421 2:-0.52840602 3:0.149543 4:-1.2873729 5:-0.69243902 6:-0.100528 7:-0.020754 8:0.404679 
-0.0033366261906936719 1:-1.141108 2:-1.497986 3:-3.570271 4:-1.2873729 5:-0.69243902 6:-1.381577 7:-0.39198601 8:-0.70074201 
-0.0033366261906936719 1:-1.141108 2:1.6296901 3:0.459528 4:0.71861702 5:1.60703 6:1.840072 7:2.073844 8:2.105325 
0.0033366261906936719 1:1.826623 2:-0.18436199 3:-3.570271 4:-1.2873729 5:-0.69243902 6:-4.0578289 7:-0.63645703 8:-0.27557999 
-0.0033366261906936719 1:0.045984 2:-0.121808 3:-0.263769 4:0.40518099 5:0.34883001 6:0.153145 7:-0.73001897 8:-0.78577399 
-0.0033366261906936719 1:-0.25078899 2:-0.966281 3:0.459528 4:-1.2873729 5:-0.69243902 6:1.358093 7:0.26295301 8:-1.040871 
-0.0033366261906936719 1:0.63953 2:-0.215639 3:-3.570271 4:-1.2873729 5:-0.69243902 6:-4.0578289 7:-0.853764 8:-0.61570901 
0.0033366261906936719 1:-1.141108 2:0.003299 3:-0.160441 4:0.593243 5:0.73930502 6:0.29266599 7:-0.81150901 8:-0.020483 
0.0033366261906936719 1:-0.547562 2:-0.65351301 3:-0.160441 4:-0.033629 5:0.088512003 6:0.115094 7:1.192543 8:-0.445645 
-0.0033366261906936719 1:2.1233959 2:0.53500402 3:0.35620001 4:-1.2873729 5:-0.69243902 6:0.153145 7:-0.156571 8:0.149582 
0.0033366261906936719 1:-1.141108 2:-0.059255 3:-3.570271 4:-1.2873729 5:-0.69243902 6:0.051676001 7:-0.99863499 8:-0.78577399 
-0.0033366261906936719 1:-1.141108 2:0.816495 3:0.82117599 4:2.0977359 5:-0.69243902 6:1.370777 7:-0.29238701 8:-0.78577399 
0.0033366261906936719 1:-1.141108 2:0.316066 3:0.97616899 4:-1.2873729 5:-0.69243902 6:-0.049793001 7:0.81829202 8:-0.105515 
-0.0033366261906936719 1:-0.84433502 2:-0.68479002 3:-0.57375401 4:-0.660501 5:-0.69243902 6:-0.83617997 7:0.23880699 8:-1.040871 
0.0033366261906936719 1:0.93630397 2:2.2865019 3:-0.057112999 4:0.46786901 5:-0.69243902 6:0.49560401 7:0.82432902 8:0.65977597 
0.0033366261906936719 1:-0.547562 2:0.722664 3:-0.57375401 4:0.78130502 5:0.47898799 6:-0.049793001 7:-0.150534 8:-0.70074201 
-0.0033366261906936719 1:-0.547562 2:-0.027977999 3:0.35620001 4:1.032053 5:0.21867099 6:0.97758299 7:-0.77529198 8:-0.360612 
0.0033366261906936719 1:-0.547562 2:1.066709 3:0.25287101 4:-0.221691 5:0.140576 6:-0.68397599 7:-0.117335 8:-0.53067702 
-0.0033366261906936719 1:-1.141108 2:1.379476 3:1.079497 4:0.78130502 5:5.2080851 6:2.5757239 7:-0.135443 8:-0.87080598 
0.0033366261906936719 1:-0.25078899 2:0.62883401 3:-3.570271 4:-1.2873729 5:-0.69243902 6:-0.25273201 7:0.87261897 8:-0.53067702 
-0.0033366261906936719 1:0.34275699 2:1.160539 3:0.046215001 4:-1.2873729 5:-0.69243902 6:-0.278099 7:-0.79943699 8:2.5304871 
0.0033366261906936719 1:-0.547562 2:0.785218 3:-3.570271 4:-1.2873729 5:-0.69243902 6:-0.56982303 7:-0.69983798 8:-0.445645 
0.0033366261906936719 1:-0.25078899 2:-1.341602 3:-0.98706698 4:0.71861702 5:0.071157999 6:-0.12589499 7:-0.67569298 8:-0.61570901 
0.0033366261906936719 1:1.233077 2:1.817351 3:0.149543 4:1.34549 5:0.43560201 6:0.089726999 7:0.745857 8:0.234614 
-0.0033366261906936719 1:-0.84433502 2:0.69138801 3:0.25287101 4:0.091744997 5:-0.163128 6:-0.73471099 7:-0.65154701 8:-1.040871 
-0.0033366261906936719 1:-0.547562 2:0.065852001 3:-1.090395 4:0.71861702 5:0.73930502 6:1.281991 7:0.145245 8:-0.61570901 
-0.0033366261906936719 1:-1.141108 2:0.785218 3:0.66618401 4:-1.2873729 5:-0.69243902 6:1.079052 7:3.951134 8:0.914873 
-0.0033366261906936719 1:-1.141108 2:-0.68479002 3:-3.570271 4:-1.2873729 5:-0.69243902 6:-0.88691503 7:-0.66060197 8:-0.95583898 
-0.0033366261906936719 1:0.34275699 2:-0.215639 3:0.25287101 4:-1.2873729 5:-0.69243902 6:-0.899598 7:0.821311 8:2.020293 
-0.0033366261906936719 1:2.1233959 2:-0.55968302 3:-0.057112999 4:1.2201149 5:-0.69243902 6:1.802021 7:-1.043907 8:0.74480802 
-0.0033366261906936719 1:0.93630397 2:1.817351 3:1.337817 4:0.65592998 5:-0.69243902 6:0.279982 7:-0.92921698 8:2.2753899 
-0.0033366261906936719 1:-1.141108 2:-0.65351301 3:0.97616899 4:2.4738591 5:0.26205701 6:1.878123 7:1.479268 8:-0.190548 
0.0033366261906936719 1:-0.547562 2:-0.87245101 3:-0.263769 4:0.71861702 5:0.69591898 6:0.76196098 7:0.61004001 8:-0.87080598 
0.0033366261906936719 1:-0.547562 2:-0.090531997 3:0.56285602 4:-1.2873729 5:-0.69243902 6:1.38346 7:0.66738498 8:-1.040871 
0.0033366261906936719 1:-1.141108 2:1.44203 3:-3.570271 4:-1.2873729 5:-0.69243902 6:0.038991999 7:1.108035 8:-0.27557999 
0.0033366261906936719 1:-1.141108 2:-0.80989701 3:0.82117599 4:0.279807 5:-0.380059 6:0.68585902 7:-0.678711 8:-0.78577399 
-0.0033366261906936719 1:0.93630397 2:0.91032499 3:-0.160441 4:1.34549 5:2.275177 6:0.3434 7:0.74283898 8:0.74480802 
0.0033366261906936719 1:-1.141108 2:0.316066 3:-3.570271 4:-1.2873729 5:-0.69243902 6:1.4215111 7:-0.60929298 8:-0.61570901 
-0.0033366261906936719 1:1.52985 2:0.409897 3:0.25287101 4:0.78130502 5:-0.17180499 6:-0.772762 7:-0.035843998 8:4.061069 
-0.0033366261906936719 1:-0.25078899 2:0.065852001 3:1.596138 4:0.90667897 5:1.390099 6:3.2099071 7:1.231779 8:-0.95583898 
0.0033366261906936719 1:-0.547562 2:-0.403299 3:0.56285602 4:-1.2873729 5:-0.69243902 6:-0.63324201 7:-0.64249301 8:1.595131 
0.0033366261906936719 1:0.93630397 2:0.66011101 3:1.079497 4:0.21712001 5:3.472636 6:-0.201997 7:-1.037871 8:0.82984 
-0.0033366261906936719 1:-1.141108 2:-0.121808 3:-3.570271 4:-1.2873729 5:-0.69243902 6:0.229247 7:1.388723 8:0.914873 
0.0033366261906936719 1:1.233077 2:1.066709 3:-0.367098 4:0.34249401 5:3.6027949 6:0.25461501 7:0.214662 8:1.084937 
-0.0033366261906936719 1:0.045984 2:0.785218 3:0.82117599 4:0.40518099 5:0.175285 6:-0.392252 7:-0.853764 8:-0.53067702 
0.0033366261906936719 1:0.34275699 2:-1.122665 3:0.25287101 4:0.091744997 5:-0.69243902 6:-0.37956801 7:2.2700241 8:-0.105515 
-0.0033366261906936719 1:-0.25078899 2:-0.18436199 3:-0.160441 4:1.157428 5:0.52237397 6:0.77464497 7:-0.97147202 8:-0.445645 
-0.0033366261906936719 1:0.34275699 2:-1.341602 3:-1.090395 4:-1.2873729 5:-0.69243902 6:0.216564 7:0.54967701 8:-0.70074201 
-0.0013016829777559398 1:0.63953 2:-0.215639 3:0.97616899 4:-1.2873729 5:-0.69243902 6:-0.53177202 7:-0.678711 8:2.785584 
0.0033366261906936719 1:-0.25078899 2:0.347343 3:0.56285602 4:-1.2873729 5:-0.69243902 6:0.30534899 7:-0.210897 8:0.914873 
0.0033366261906936719 1:0.045984 2:-0.80989701 3:-0.263769 4:-1.2873729 5:-0.69243902 6:0.00094100001 7:-0.938272 8:-0.190548 
-0.0033366261906936719 1:2.4201691 2:0.59755701 3:0.82117599 4:0.78130502 5:-0.69243902 6:0.68585902 7:-0.687765 8:0.65977597 
0.0033366261906936719 1:-0.25078899 2:0.003299 3:-0.88373798 4:-1.2873729 5:-0.69243902 6:0.50828803 7:-1.040889 8:-0.70074201 
-0.0033366261906936719 1:-0.547562 2:0.62883401 3:-0.57375401 4:0.84399199 5:0.418248 6:-0.83617997 7:0.68549401 8:-0.78577399 
0.0033366261906936719 1:0.34275699 2:-3.7811899 3:0.56285602 4:0.71861702 5:-0.69243902 6:1.142471 7:-0.37991399 8:0.319646 
-0.0033366261906936719 1:1.826623 2:-0.18436199 3:-3.570271 4:-1.2873729 5:-0.69243902 6:0.41950199 7:-1.019762 8:-0.360612 
-0.0033366261906936719 1:-0.547562 2:-0.18436199 3:-0.263769 4:0.091744997 5:-0.69243902 6:-0.151263 7:-0.153552 8:-1.040871 
-0.0033366261906936719 1:1.233077 2:-0.65351301 3:0.35620001 4:-1.2873729 5:-0.69243902 6:0.85074699 7:-0.85074502 8:0.74480802 
-0.0012473043350348574 1:0.045984 2:-0.966281 3:0.97616899 4:1.658926 5:-0.223868 6:0.72390997 7:-0.33162299 8:-0.360612 
-0.0033366261906936719 1:-0.25078899 2:-0.15308499 3:-3.570271 4:-1.2873729 5:-0.69243902 6:-1.07717 7:-0.85979998 8:-0.87080598 
0.0033366261906936719 1:0.93630397 2:-0.215639 3:-0.263769 4:-1.2873729 5:-0.69243902 6:-0.58250701 7:0.78509301 8:0.064548999 
0.0033366261906936719 1:0.045984 2:0.347343 3:-3.570271 4:-1.2873729 5:-0.69243902 6:0.115094 7:-0.512712 8:-0.87080598 
0.0033366261906936719 1:-1.141108 2:0.53500402 3:-0.47042599 4:0.90667897 5:0.75665998 6:0.33071601 7:0.187499 8:-1.040871 
-0.0033366261906936719 1:2.7169421 2:0.753941 3:0.66618401 4:-0.096316002 5:0.26205701 6:-1.242057 7:-0.68474698 8:2.020293 
-0.0033366261906936719 1:-1.141108 2:1.379476 3:0.35620001 4:1.408177 5:1.520257 6:2.017643 7:-0.64249301 8:-0.61570901 
-0.0033366261906936719 1:1.826623 2:0.034575 3:-0.057112999 4:-1.2873729 5:-0.69243902 6:-0.100528 7:-0.64551097 8:0.65977597 
-0.0033366261906936719 1:-0.84433502 2:1.004155 3:0.66618401 4:1.34549 5:3.5160229 6:1.091736 7:0.64927602 8:-0.87080598 
0.0033366261906936719 1:-0.25078899 2:0.25351301 3:-0.263769 4:0.53055602 5:0.30544299 6:-0.70934403 7:-0.763219 8:-0.445645 
-0.0033366261906936719 1:0.63953 2:-0.77862 3:-3.570271 4:-1.2873729 5:-0.69243902 6:-1.051802 7:-0.85074502 8:-0.445645 
0.0033366261906936719 1:-0.84433502 2:2.4428861 3:0.35620001 4:1.408177 5:-0.69243902 6:1.38346 7:2.7831089 8:-0.95583898 
-0.0033366261906936719 1:2.7169421 2:-0.46585301 3:0.149543 4:2.0977359 5:-0.69243902 6:0.58438998 7:-0.88696301 8:0.99990499 
0.0033366261906936719 1:-1.141108 2:0.62883401 3:-3.570271 4:-1.2873729 5:-0.69243902 6:1.320042 7:-0.80547303 8:-0.360612 
0.0033366261906936719 1:2.4201691 2:-1.153942 3:0.149543 4:0.65592998 5:-0.69243902 6:-0.29078299 7:-0.527803 8:1.084937 
0.0033366261906936719 1:1.52985 2:-0.059255 3:0.56285602 4:0.90667897 5:-0.69243902 6:-0.37956801 7:-0.63042003 8:-0.360612 
-0.0033366261906936719 1:0.63953 2:0.94160199 3:-0.367098 4:0.65592998 5:0.34883001 6:0.44486901 7:0.66436702 8:-0.445645 
0.0033366261906936719 1:0.93630397 2:-0.65351301 3:-3.570271 4:-1.2873729 5:-0.69243902 6:-0.25273201 7:0.036591001 8:-0.105515 
-0.0033366261906936719 1:0.045984 2:0.316066 3:-0.057112999 4:0.029058 5:0.74798298 6:0.140462 7:-0.94129002 8:-0.445645 
-0.0033366261906936719 1:0.93630397 2:-0.059255 3:-3.570271 4:-1.2873729 5:-0.69243902 6:-0.86154699 7:-0.793401 8:0.319646 
0.0033366261906936719 1:-1.141108 2:0.25351301 3:2.1127779 4:1.596238 5:0.43560201 6:4.4529061 7:-0.461404 8:-0.61570901 
-0.0033366261906936719 1:0.34275699 2:0.816495 3:0.30453601 4:-1.2873729 5:-0.69243902 6:-0.26541501 7:-0.114316 8:-0.445645 
-0.0033366261906936719 1:-1.141108 2:-0.121808 3:0.56285602 4:0.65592998 5:-0.232546 6:1.675184 7:-1.155579 8:-0.78577399 
-0.0033366261906936719 1:0.34275699 2:0.69138801 3:0.459528 4:-1.2873729 5:-0.69243902 6:1.649817 7:-0.85074502 8:1.16997 
0.0033366261906936719 1:1.233077 2:-0.027977999 3:-3.570271 4:-1.2873729 5:-0.69243902 6:-0.25273201 7:-0.87187302 8:0.404679 
0.0033366261906936719 1:-0.25078899 2:1.316923 3:0.046215001 4:-0.159003 5:0.21867099 6:-0.049793001 7:-0.61532998 8:-0.445645 
0.0033366261906936719 1:-0.547562 2:0.785218 3:0.046215001 4:1.094741 5:2.4313669 6:-0.506405 7:-0.40707701 8:-0.360612 
-0.0033366261906936719 1:-0.84433502 2:-1.497986 3:-0.98706698 4:-0.660501 5:-0.69243902 6:-1.140588 7:-0.67569298 8:-1.040871 
-0.0033366261906936719 1:0.63953 2:1.410753 3:0.25287101 4:-1.2873729 5:-0.69243902 6:-0.68397599 7:-0.50667602 8:2.785584 
0.0033366261906936719 1:0.63953 2:-0.59096003 3:0.66618401 4:-1.2873729 5:-0.69243902 6:-0.151263 7:-0.88092703 8:0.234614 
0.0033366261906936719 1:0.045984 2:-0.18436199 3:0.149543 4:-1.2873729 5:-0.69243902 6:-0.392252 7:-0.28936899 8:1.084937 
-0.0033366261906936719 1:-0.84433502 2:0.69138801 3:0.769512 4:0.154433 5:1.9975049 6:1.320042 7:1.823337 8:-0.95583898 
0.0033366261906936719 1:-0.84433502 2:-0.121808 3:0.97616899 4:0.21712001 5:0.56576103 6:0.31803301 7:-0.20787901 8:0.57474297 
-0.0033366261906936719 1:2.7169421 2:-0.46585301 3:0.046215001 4:-1.2873729 5:-0.69243902 6:0.279982 7:-0.66663802 8:1.595131 
0.0033366261906936719 1:1.233077 2:-0.027977999 3:0.87283999 4:-1.2873729 5:-0.69243902 6:-0.45567 7:-0.64249301 8:-0.95583898 
-0.0033366261906936719 1:-0.25078899 2:1.160539 3:-0.263769 4:-0.47244 5:2.665653 6:-0.100528 7:-0.53384 8:-0.78577399 
0.0033366261906936719 1:0.93630397 2:2.067565 3:-0.057112999 4:1.157428 5:1.945442 6:0.72390997 7:-0.65758401 8:0.65977597 
-0.0033366261906936719 1:0.93630397 2:0.66011101 3:-0.47042599 4:0.78130502 5:0.956236 6:-0.40493599 7:0.64927602 8:2.3604231 
0.0033366261906936719 1:-0.25078899 2:-0.27819201 3:0.25287101 4:0.593243 5:-0.69243902 6:-0.049793001 7:-0.82961798 8:-0.70074201 
-0.0033366261906936719 1:-0.84433502 2:0.53500402 3:0.66618401 4:-1.2873729 5:-0.69243902 6:1.028318 7:-0.71191001 8:-0.445645 
0.0033366261906936719 1:0.34275699 2:0.722664 3:0.66618401 4:0.34249401 5:1.780574 6:0.00094100001 7:-0.05999 8:2.105325 
0.0033366261906936719 1:-1.141108 2:0.50372702 3:-1.5037071 4:0.90667897 5:0.76533699 6:1.408828 7:5.4813371 8:-0.020483 
-0.0033366261906936719 1:-0.84433502 2:-1.247772 3:0.25287101 4:1.282802 5:-0.197837 6:1.814705 7:1.8837 8:-0.105515 
0.0033366261906936719 1:0.93630397 2:2.067565 3:-0.98706698 4:0.78130502 5:2.709039 6:0.24193101 7:1.068799 8:0.064548999 
-0.0033366261906936719 1:1.826623 2:-0.18436199 3:1.4928091 4:-1.2873729 5:-0.69243902 6:-1.013751 7:1.660357 8:0.064548999 
0.0016722646005546532 1:-0.84433502 2:1.5984139 3:-0.057112999 4:1.7843 5:4.3316832 6:1.320042 7:0.69454801 8:-0.445645 
-0.0033366261906936719 1:0.93630397 2:0.37862 3:0.769512 4:-1.2873729 5:-0.69243902 6:1.041001 7:0.67643899 8:0.319646 
0.0033366261906936719 1:-1.141108 2:0.065852001 3:0.149543 4:-1.2873729 5:-0.69243902 6:0.54633898 7:-0.64551097 8:1.595131 
-0.0033366261906936719 1:-0.84433502 2:-0.434576 3:0.149543 4:0.593243 5:0.019094 6:-0.151263 7:1.053708 8:-0.78577399 
-0.0033366261906936719 1:0.93630397 2:1.191816 3:-0.263769 4:-1.2873729 5:-0.69243902 6:-0.58250701 7:-0.53685802 8:0.57474297 
0.0033366261906936719 1:0.93630397 2:-0.46585301 3:-0.47042599 4:0.21712001 5:-0.69243902 6:-0.69665998 7:-0.53082103 8:-0.360612 
-0.0033366261906936719 1:1.233077 2:0.159683 3:0.97616899 4:0.96936601 5:0.24470299 6:0.82537901 7:-0.370859 8:1.340034 
0.0033366261906936719 1:-1.141108 2:-0.52840602 3:-0.263769 4:1.032053 5:-0.137096 6:0.20388 7:0.115063 8:-0.95583898 
-0.0033366261906936719 1:-0.84433502 2:0.59755701 3:0.25287101 4:0.34249401 5:0.86946398 6:-1.001068 7:1.0748349 8:-0.87080598 
-0.0033366261906936719 1:0.63953 2:1.035432 3:0.25287101 4:0.71861702 5:0.98226798 6:-0.341517 7:1.108035 8:0.48971099 
-0.0033366261906936719 1:-0.84433502 2:0.722664 3:0.66618401 4:1.2201149 5:-0.69243902 6:1.180522 7:0.40782401 8:-0.445645 
0.0033366261906936719 1:-0.84433502 2:-0.59096003 3:0.25287101 4:-1.2873729 5:-0.69243902 6:0.95221603 7:-0.53987598 8:0.74480802 
0.0033366261906936719 1:-0.547562 2:-0.49712899 3:0.56285602 4:1.533551 5:0.96491402 6:0.216564 7:0.72171199 8:-0.360612 
-0.0033366261906936719 1:-0.84433502 2:-0.49712899 3:-0.57375401 4:-1.2873729 5:-0.69243902 6:-0.97570002 7:-0.85979998 8:-1.040871 
-0.0033366261906936719 1:0.045984 2:0.25351301 3:-0.47042599 4:-0.53512698 5:1.312003 6:-0.56982303 7:0.166372 8:-0.190548 
0.0033366261906936719 1:0.34275699 2:-0.18436199 3:0.35620001 4:-1.2873729 5:-0.69243902 6:-0.100528 7:-0.38896799 8:0.914873 
-0.0033366261906936719 1:1.52985 2:0.097129002 3:0.046215001 4:0.78130502 5:2.7958119 6:0.43218601 7:-0.57307601 8:0.064548999 
-0.0033366261906936719 1:0.045984 2:0.722664 3:-0.57375401 4:0.46786901 5:0.52237397 6:-0.31615001 7:-0.55798501 8:0.319646 
0.0033366261906936719 1:-0.547562 2:0.409897 3:0.046215001 4:-1.2873729 5:-0.69243902 6:-0.392252 7:0.21164399 8:-0.87080598 
-0.0033366261906936719 1:-0.84433502 2:-0.46585301 3:0.35620001 4:-1.2873729 5:-0.69243902 6:0.69854301 7:-0.82961798 8:-0.61570901 
0.0033366261906936719 1:2.1233959 2:-0.027977999 3:0.56285602 4:1.032053 5:0.60914701 6:1.307358 7:0.94505501 8:1.255002 
-0.003060821160230715 1:1.233077 2:-0.34074599 3:0.35620001 4:-1.2873729 5:-0.69243902 6:-0.53177202 7:-0.70889199 8:2.105325 
-0.0033366261906936719 1:-0.547562 2:1.129262 3:0.25287101 4:0.90667897 5:3.1255469 6:0.93953198 7:-1.019762 8:-0.27557999 
0.0033366261906936719 1:-0.25078899 2:-1.279049 3:0.66618401 4:0.65592998 5:-0.085032001 6:0.279982 7:2.4752581 8:-0.53067702 
-0.0033366261906936719 1:-0.84433502 2:1.348199 3:0.66618401 4:1.408177 5:-0.111064 6:0.102411 7:-0.39500499 8:1.4250669 
-0.0033366261906936719 1:-0.84433502 2:0.56628001 3:-1.193723 4:-0.096316002 5:0.027772 6:-0.41761899 7:0.54967701 8:-0.95583898 
0.0033366261906936719 1:0.63953 2:0.097129002 3:0.149543 4:-1.2873729 5:-0.69243902 6:-0.55713999 7:-0.31351399 8:-0.360612 
0.0033366261906936719 1:0.045984 2:-0.121808 3:-0.367098 4:-0.53512698 5:-0.69243902 6:-0.29078299 7:-0.27729699 8:-0.27557999 
0.0033366261906936719 1:-0.547562 2:1.066709 3:-0.88373798 4:0.40518099 5:3.9932711 6:0.85074699 7:-0.69983798 8:-0.70074201 
-0.0033366261906936719 1:-0.547562 2:-1.122665 3:-0.21210501 4:-1.2873729 5:-0.69243902 6:0.964899 7:1.382687 8:-0.53067702 
0.0033366261906936719 1:0.93630397 2:-0.55968302 3:-0.160441 4:0.71861702 5:-0.69243902 6:0.90148097 7:-0.38595 8:-0.190548 
-0.0033366261906936719 1:-0.25078899 2:-0.59096003 3:-1.297051 4:-0.033629 5:0.123221 6:-0.151263 7:-0.216934 8:-0.61570901 
0.0033366261906936719 1:1.52985 2:1.097985 3:0.87283999 4:0.46786901 5:0.65253299 6:0.29266599 7:2.1643879 8:0.74480802 
-0.0033366261906936719 1:2.1233959 2:0.19095901 3:1.906122 4:-1.2873729 5:-0.69243902 6:0.88879699 7:-0.85074502 8:1.5100991 
-0.0033366261906936719 1:-0.547562 2:0.003299 3:0.046215001 4:0.71861702 5:0.131899 6:0.90148097 7:1.2498879 8:-0.87080598 
-0.0033366261906936719 1:-0.547562 2:-0.966281 3:-0.47042599 4:-1.2873729 5:-0.69243902 6:-1.07717 7:-0.847727 8:-0.70074201 
0.0033366261906936719 1:0.045984 2:0.065852001 3:-0.367098 4:-1.2873729 5:-0.69243902 6:0.00094100001 7:-0.74209201 8:0.149582 
-0.0033366261906936719 1:-0.84433502 2:0.69138801 3:0.87283999 4:0.593243 5:2.1710501 6:-0.24004801 7:1.267997 8:-0.87080598 
-0.0033366261906936719 1:-0.547562 2:-0.90372699 3:-0.88373798 4:-1.2873729 5:-0.69243902 6:-0.24004801 7:-0.99863499 8:-0.95583898 
0.0033366261906936719 1:-1.141108 2:0.59755701 3:-0.21210501 4:0.34249401 5:0.43560201 6:1.345409 7:-0.123371 8:-0.78577399 
0.0033366261906936719 1:0.63953 2:0.409897 3:0.56285602 4:1.032053 5:2.5181401 6:1.802021 7:-0.70587403 8:1.084937 
-0.0033366261906936719 1:2.4201691 2:-0.65351301 3:0.769512 4:0.78130502 5:0.21867099 6:-0.25273201 7:0.048664 8:1.084937 
-0.0033366261906936719 1:0.93630397 2:0.50372702 3:1.079497 4:1.282802 5:-0.69243902 6:0.00094100001 7:-0.24409699 8:0.48971099 
0.0033366261906936719 1:0.34275699 2:-0.27819201 3:-0.160441 4:-1.2873729 5:-0.69243902 6:0.73659402 7:-0.63645703 8:0.65977597 
-0.0033366261906936719 1:0.34275699 2:0.22223599 3:0.56285602 4:-1.2873729 5:-0.69243902 6:0.33071601 7:-0.98957998 8:0.99990499 
-0.0033366261906936719 1:0.63953 2:0.722664 3:0.149543 4:0.40518099 5:1.285972 6:0.24193101 7:-0.65456599 8:0.57474297 
0.0033366261906936719 1:1.233077 2:-0.372022 3:0.35620001 4:1.157428 5:0.29676601 6:-0.51908898 7:0.50742298 8:-0.190548 
-0.0033366261906936719 1:1.233077 2:-0.27819201 3:0.149543 4:-1.2873729 5:-0.69243902 6:-1.064486 7:1.111053 8:2.105325 
-0.0033366261906936719 1:-0.84433502 2:-0.434576 3:-0.98706698 4:-0.096316002 5:-0.69243902 6:-0.46835399 7:-0.877909 8:-0.360612 
0.0033366261906936719 1:-0.25078899 2:1.504583 3:0.25287101 4:-0.096316002 5:0.392216 6:-0.26541501 7:-0.61532998 8:-0.190548 
0.0033366261906936719 1:0.34275699 2:-0.15308499 3:0.25287101 4:0.53055602 5:-0.69243902 6:0.038991999 7:0.56778598 8:0.149582 
-0.0033366261906936719 1:0.63953 2:-0.49712899 3:0.56285602 4:0.46786901 5:-0.69243902 6:0.06436 7:1.2257431 8:-0.61570901 
-0.0033366261906936719 1:-0.547562 2:0.25351301 3:0.25287101 4:0.34249401 5:1.086395 6:0.153145 7:0.35953301 8:-0.70074201 
0.0033366261906936719 1:1.52985 2:0.753941 3:0.97616899 4:0.84399199 5:0.73930502 6:-0.214681 7:0.90280098 8:1.680164 
-0.0033366261906936719 1:0.34275699 2:-0.372022 3:0.30453601 4:0.34249401 5:-0.69243902 6:0.50828803 7:0.223717 8:2.2753899 
-0.0033366261906936719 1:-1.141108 2:-0.62223703 3:-0.367098 4:-1.2873729 5:-0.69243902 6:-1.280108 7:-0.41009501 8:-0.70074201 
-0.0033366261906936719 1:-1.141108 2:0.19095901 3:0.56285602 4:1.032053 5:1.129781 6:0.54633898 7:1.0024 8:-0.87080598 
0.0033366261906936719 1:0.63953 2:0.128406 3:0.459528 4:0.65592998 5:-0.69243902 6:-0.55713999 7:0.28106099 8:1.340034 
-0.0033366261906936719 1:-0.84433502 2:-0.27819201 3:0.149543 4:0.593243 5:0.834755 6:0.30534899 7:0.16938999 8:-0.70074201 
-0.0033366261906936719 1:-0.84433502 2:-0.059255 3:0.97616899 4:1.282802 5:0.78269202 6:1.687868 7:0.106009 8:-0.61570901 
0.0033366261906936719 1:-0.25078899 2:0.22223599 3:0.149543 4:0.279807 5:0.956236 6:0.051676001 7:0.23277099 8:-0.53067702 
-0.0033366261906936719 1:2.4201691 2:0.003299 3:0.459528 4:-0.221691 5:-0.69243902 6:-0.69665998 7:-0.64249301 8:2.4454551 
0.0033366261906936719 1:2.1233959 2:-0.30946901 3:0.769512 4:1.2201149 5:-0.69243902 6:1.878123 7:1.367596 8:0.99990499 
-0.0033366261906936719 1:1.233077 2:-0.935004 3:0.66618401 4:-1.2873729 5:-0.69243902 6:0.457553 7:0.34746099 8:2.9556489 
-0.0033366261906936719 1:-0.84433502 2:0.47244999 3:0.25287101 4:1.846987 5:1.077718 6:0.68585902 7:-0.219952 8:-0.78577399 
0.0033366261906936719 1:0.63953 2:-0.52840602 3:0.25287101 4:-0.159003 5:0.66121 6:-0.26541501 7:0.75491101 8:0.65977597 
0.0033366261906936719 1:-0.84433502 2:0.034575 3:-0.263769 4:0.71861702 5:0.66121 6:0.394135 7:0.66436702 8:-0.27557999 
-0.0033366261906936719 1:-1.141108 2:-0.87245101 3:1.596138 4:1.157428 5:-0.067677997 6:1.446879 7:1.657339 8:0.149582 
0.0033366261906936719 1:0.93630397 2:1.254369 3:0.87283999 4:-1.2873729 5:-0.69243902 6:-0.201997 7:-0.92619902 8:1.16997 
-0.0033366261906936719 1:0.63953 2:0.25351301 3:1.079497 4:-0.84856302 5:2.1363411 6:-1.5718319 7:0.33237001 8:2.2753899 
-0.0033366261906936719 1:1.826623 2:0.034575 3:0.459528 4:0.65592998 5:-0.69243902 6:-0.55713999 7:0.121099 8:0.99990499 
0.0033366261906936719 1:0.045984 2:0.753941 3:0.66618401 4:-0.159003 5:-0.69243902 6:0.06436 7:-0.71492898 8:3.1257141 
0.0033366261906936719 1:0.045984 2:-0.372022 3:-0.263769 4:1.4708641 5:0.16660801 6:0.35608399 7:1.307233 8:-0.61570901 
0.0033366261906936719 1:1.233077 2:2.036288 3:1.079497 4:0.90667897 5:1.25994 6:0.31803301 7:-0.147516 8:0.319646 
0.0033366261906936719 1:0.045984 2:0.84777099 3:-0.47042599 4:0.40518099 5:2.0669229 6:-0.138579 7:-0.97147202 8:-0.360612 
0.0033366261906936719 1:-0.25078899 2:1.911181 3:0.25287101 4:-1.2873729 5:-0.69243902 6:-0.18931399 7:-0.38293201 8:-0.360612 
0.0033366261906936719 1:0.93630397 2:1.879905 3:0.769512 4:0.029058 5:0.97359103 6:0.49560401 7:0.34444299 8:1.5100991 
0.0033366261906936719 1:-0.25078899 2:0.25351301 3:1.182825 4:1.7843 5:0.65253299 6:0.55902201 7:1.497377 8:-0.105515 
0.0033366261906936719 1:-0.84433502 2:-1.028834 3:-2.0203481 4:1.34549 5:0.16660801 6:2.9181831 7:0.072809003 8:-0.61570901 
-0.0033366261906936719 1:0.93630397 2:0.37862 3:0.97616899 4:-0.347065 5:0.65253299 6:0.051676001 7:-0.633439 8:0.319646 
0.0033366261906936719 1:1.52985 2:-0.59096003 3:0.35620001 4:1.032053 5:-0.69243902 6:0.115094 7:0.58287698 8:1.084937 
-0.0033366261906936719 1:0.93630397 2:-1.247772 3:0.459528 4:1.2201149 5:-0.27593201 6:1.8654391 7:-0.63645703 8:0.74480802 
-0.0033366261906936719 1:-0.84433502 2:-0.997558 3:-2.330333 4:-0.096316002 5:-0.475508 6:-0.53177202 7:0.26295301 8:-1.040871 
0.0033366261906936719 1:0.34275699 2:-0.18436199 3:1.4928091 4:-1.2873729 5:-0.69243902 6:2.6518259 7:-0.793401 8:-0.445645 
-0.0033366261906936719 1:-0.84433502 2:-1.091388 3:-0.160441 4:1.972362 5:-0.128419 6:1.180522 7:1.343451 8:-0.360612 
-0.0033366261906936719 1:-1.141108 2:-0.215639 3:0.56285602 4:0.84399199 5:1.780574 6:1.5483479 7:-0.92016298 8:-0.53067702 
0.0033366261906936719 1:2.4201691 2:-0.90372699 3:-0.367098 4:-0.84856302 5:1.546289 6:-0.55713999 7:1.3706141 8:0.914873 
0.0033366261906936719 1:-0.84433502 2:0.128406 3:-0.98706698 4:1.2201149 5:0.75665998 6:0.165829 7:1.479268 8:-0.445645 
0.0033366261906936719 1:-1.141108 2:-0.090531997 3:0.769512 4:1.658926 5:1.303326 6:1.751286 7:0.23880699 8:-0.190548 
0.0033366261906936719 1:1.233077 2:1.942458 3:-0.263769 4:-1.2873729 5:-0.69243902 6:-1.102537 7:0.60400403 8:-0.105515 
0.0033366261906936719 1:0.045984 2:1.942458 3:-3.570271 4:-1.2873729 5:-0.69243902 6:-0.45567 7:-0.78434598 8:0.234614 
0.0033366261906936719 1:0.045984 2:1.160539 3:0.459528 4:-1.2873729 5:-0.69243902 6:0.115094 7:0.99938202 8:-0.190548 
-0.0033366261906936719 1:-0.84433502 2:-0.55968302 3:-2.0203481 4:1.094741 5:0.027772 6:1.434195 7:-0.87187302 8:-0.020483 
0.0033366261906936719 1:-0.84433502 2:0.22223599 3:0.97616899 4:1.157428 5:0.26205701 6:0.571706 7:1.765992 8:0.319646 
-0.0033366261906936719 1:0.93630397 2:-0.84117401 3:-0.263769 4:0.279807 5:-0.006937 6:0.165829 7:0.80320197 8:0.65977597 
-0.0033366261906936719 1:-1.141108 2:0.128406 3:-0.057112999 4:-1.2873729 5:-0.69243902 6:-0.92496598 7:-0.80245501 8:-1.040871 
-0.0033366261906936719 1:0.93630397 2:0.47244999 3:1.079497 4:-1.2873729 5:-0.69243902 6:-0.26541501 7:-0.79038203 8:1.4250669 
0.0033366261906936719 1:-0.25078899 2:1.567137 3:0.149543 4:0.78130502 5:0.47898799 6:0.165829 7:-0.82358199 8:-0.78577399 
-0.0033366261906936719 1:0.045984 2:0.94160199 3:1.079497 4:1.094741 5:-0.69243902 6:-0.29078299 7:-0.53685802 8:0.234614 
0.0033366261906936719 1:0.34275699 2:0.50372702 3:2.00945 4:-1.2873729 5:-0.69243902 6:2.1317959 7:-0.73907399 8:0.319646 
0.0033366261906936719 1:1.52985 2:0.753941 3:0.56285602 4:1.596238 5:0.43560201 6:0.749277 7:0.498368 8:0.57474297 
0.0033366261906936719 1:0.045984 2:0.128406 3:0.046215001 4:-0.159003 5:0.366184 6:-0.392252 7:2.0285709 8:0.99990499 
-0.0033366261906936719 1:-0.25078899 2:0.66011101 3:0.56285602 4:-0.347065 5:-0.69243902 6:0.051676001 7:-0.82056397 8:2.5304871 
0.0033366261906936719 1:2.7169421 2:0.97287798 3:1.079497 4:0.78130502 5:-0.440799 6:-0.65860897 7:0.78207499 8:0.82984 
0.0033366261906936719 1:0.93630397 2:0.25351301 3:-0.057112999 4:1.7843 5:0.392216 6:0.82537901 7:-0.099225998 8:0.82984 
-0.0033366261906936719 1:0.63953 2:-0.71606702 3:-0.57375401 4:0.78130502 5:0.956236 6:0.25461501 7:-0.126389 8:0.82984 
-0.0033366261906936719 1:0.045984 2:0.347343 3:0.87283999 4:0.65592998 5:-0.69243902 6:-0.506405 7:-0.15958899 8:2.5304871 
-0.0033366261906936719 1:0.045984 2:0.065852001 3:0.56285602 4:-0.347065 5:0.834755 6:0.00094100001 7:-0.087153003 8:0.064548999 
0.0033366261906936719 1:0.93630397 2:0.816495 3:0.35620001 4:-1.2873729 5:-0.69243902 6:0.93953198 7:-0.64852899 8:0.82984 
-0.0033366261906936719 1:-0.25078899 2:0.128406 3:-0.57375401 4:-1.2873729 5:-0.69243902 6:-0.049793001 7:-0.96845299 8:-0.78577399 
0.0033366261906936719 1:-1.141108 2:0.22223599 3:-0.057112999 4:-0.096316002 5:0.86946398 6:-0.18931399 7:2.774055 8:-0.70074201 
-0.0033366261906936719 1:-0.547562 2:-0.34074599 3:0.25287101 4:0.53055602 5:0.392216 6:0.051676001 7:0.68247598 8:-0.53067702 
0.0033366261906936719 1:0.045984 2:1.6296901 3:0.046215001 4:-0.40975201 5:0.76533699 6:-0.29078299 7:-0.33464199 8:-0.020483 
-0.0030490076111983743 1:-0.84433502 2:-0.62223703 3:-0.98706698 4:-0.347065 5:-0.380059 6:-0.98838401 7:0.16335399 8:-0.61570901 
-0.0033366261906936719 1:-0.84433502 2:-0.059255 3:-0.78040999 4:-0.47244 5:-0.25857699 6:-1.229373 7:-0.80547303 8:-0.78577399 
-0.0033366261906936719 1:1.52985 2:-0.027977999 3:0.149543 4:0.091744997 5:-0.206514 6:-1.419628 7:0.78811097 8:1.255002 
-0.0033366261906936719 1:-1.141108 2:-0.059255 3:-0.263769 4:-0.159003 5:0.105867 6:0.36876699 7:0.76396602 8:-0.87080598 
0.0033366261906936719 1:0.045984 2:0.722664 3:0.66618401 4:0.71861702 5:-0.69243902 6:0.82537901 7:0.247862 8:0.319646 
0.0033366261906936719 1:1.52985 2:0.034575 3:-0.677082 4:-1.2873729 5:-0.69243902 6:0.165829 7:1.938027 8:-0.020483 
0.0033366261906936719 1:-0.84433502 2:0.722664 3:0.66618401 4:1.596238 5:0.86946398 6:1.789337 7:-0.413113 8:1.084937 
0.0033366261906936719 1:-0.25078899 2:2.2552259 3:0.046215001 4:0.65592998 5:-0.69243902 6:0.36876699 7:-0.69682002 8:-0.70074201 
-0.0033366261906936719 1:0.63953 2:-0.59096003 3:1.079497 4:1.157428 5:-0.69243902 6:0.47023699 7:0.61004001 8:-0.445645 
0.0033366261906936719 1:-1.141108 2:1.848628 3:1.079497 4:0.34249401 5:0.088512003 6:0.571706 7:-0.476495 8:0.149582 
-0.0033366261906936719 1:-0.25078899 2:0.84777099 3:-0.160441 4:0.279807 5:-0.69243902 6:0.06436 7:-0.65154701 8:-0.95583898 
0.0033366261906936719 1:-0.84433502 2:0.816495 3:1.286153 4:1.282802 5:-0.69243902 6:2.195215 7:-0.343696 8:-0.53067702 
0.0033366261906936719 1:0.34275699 2:0.28479001 3:0.66618401 4:-1.2873729 5:-0.69243902 6:0.90148097 7:1.461159 8:0.319646 
0.0033366261906936719 1:0.63953 2:-0.059255 3:-0.98706698 4:0.091744997 5:0.834755 6:-0.62055802 7:2.55373 8:-0.020483 
-0.0033366261906936719 1:-0.547562 2:1.6922441 3:0.97616899 4:-1.2873729 5:-0.69243902 6:-1.153272 7:-0.44027701 8:-0.95583898 
0.0033366261906936719 1:1.826623 2:1.254369 3:-0.057112999 4:0.154433 5:0.45295599 6:-0.82349598 7:-0.44027701 8:1.16997 
0.0033366261906936719 1:-0.25078899 2:1.285646 3:-0.88373798 4:1.094741 5:-0.69243902 6:0.660492 7:0.54364097 8:-0.78577399 
-0.0033366261906936719 1:-0.547562 2:0.66011101 3:0.66618401 4:-0.159003 5:-0.137096 6:-0.92496598 7:0.87261897 8:-1.040871 
0.0033366261906936719 1:1.52985 2:0.59755701 3:1.286153 4:-1.2873729 5:-0.69243902 6:0.089726999 7:0.79112899 8:0.99990499 
-0.0033366261906936719 1:-0.84433502 2:0.097129002 3:-0.47042599 4:0.71861702 5:-0.69243902 6:0.48291999 7:0.12713601 8:-1.040871 
0.0033366261906936719 1:-0.547562 2:1.160539 3:1.079497 4:-1.2873729 5:-0.69243902 6:-0.049793001 7:1.0054179 8:2.785584 
0.0033366261906936719 1:-0.84433502 2:-0.059255 3:0.87283999 4:1.157428 5:1.216554 6:1.725919 7:1.014472 8:-0.360612 
-0.0033366261906936719 1:1.233077 2:-0.027977999 3:0.459528 4:-1.2873729 5:-0.69243902 6:-0.88691503 7:-0.18977 8:2.61552 
-0.0033366261906936719 1:-1.141108 2:1.254369 3:-0.98706698 4:-1.2873729 5:-0.69243902 6:-1.280108 7:-0.65758401 8:2.700552 
-0.0033366261906936719 1:1.233077 2:-1.466709 3:0.046215001 4:1.2201149 5:-0.26725501 6:0.41950199 7:0.70360303 8:0.48971099 
0.0033366261906936719 1:0.34275699 2:1.410753 3:0.35620001 4:-1.2873729 5:-0.69243902 6:1.738603 7:-0.39802301 8:-0.53067702 
-0.0033366261906936719 1:-0.547562 2:0.034575 3:-0.47042599 4:-0.159003 5:0.227348 6:-0.278099 7:0.73982102 8:-0.95583898 
0.0033366261906936719 1:-1.141108 2:1.817351 3:-0.98706698 4:0.96936601 5:0.68724197 6:0.73659402 7:-0.050935 8:-0.95583898 
0.0033366261906936719 1:1.826623 2:-0.62223703 3:0.87283999 4:1.032053 5:-0.69243902 6:1.725919 7:2.004426 8:0.404679 
-0.0033366261906936719 1:1.233077 2:-0.68479002 3:0.769512 4:-1.2873729 5:-0.69243902 6:0.43218601 7:-0.253151 8:1.4250669 
-0.0033366261906936719 1:0.34275699 2:-0.46585301 3:0.66618401 4:0.593243 5:-0.69243902 6:0.95221603 7:-0.56100303 8:0.404679 
0.0033366261906936719 1:1.233077 2:1.035432 3:0.459528 4:0.71861702 5:-0.69243902 6:0.051676001 7:-0.087153003 8:0.99990499 
0.0033366261906936719 1:0.045984 2:1.567137 3:0.149543 4:-1.2873729 5:-0.69243902 6:1.4722461 7:0.021500001 8:-0.61570901 
-0.0033366261906936719 1:0.045984 2:-0.027977999 3:-0.057112999 4:-1.2873729 5:-0.69243902 6:-0.30346599 7:0.715675 8:0.064548999 
-0.0033366261906936719 1:0.045984 2:0.034575 3:-0.057112999 4:-1.2873729 5:-0.69243902 6:0.38145101 7:-0.23504201 8:-0.360612 
0.0033366261906936719 1:0.34275699 2:1.410753 3:0.149543 4:-0.096316002 5:0.826078 6:-0.78544497 7:0.34746099 8:1.5100991 
0.0033366261906936719 1:-0.84433502 2:1.879905 3:-0.263769 4:0.593243 5:0.86946398 6:0.26729801 7:-0.434241 8:0.404679 
-0.0033366261906936719 1:-0.547562 2:-0.27819201 3:0.459528 4:1.846987 5:0.52237397 6:0.93953198 7:-0.89601803 8:-0.78577399 
0.0033366261906936719 1:-0.25078899 2:1.160539 3:0.35620001 4:0.96936601 5:1.433485 6:-0.049793001 7:1.144253 8:-0.445645 
-0.0033366261906936719 1:0.93630397 2:0.097129002 3:0.046215001 4:0.78130502 5:1.173167 6:-0.82349598 7:-0.938272 8:0.319646 
0.0033366261906936719 1:0.34275699 2:1.160539 3:0.769512 4:1.282802 5:1.129781 6:0.93953198 7:-0.232024 8:-0.360612 
0.0033366261906936719 1:0.93630397 2:0.91032499 3:0.459528 4:0.53055602 5:0.400893 6:0.406818 7:0.66436702 8:1.765196 
-0.0033366261906936719 1:1.233077 2:0.159683 3:0.25287101 4:1.094741 5:-0.041646 6:-0.772762 7:-0.93525398 8:0.48971099 
0.0033366261906936719 1:-0.25078899 2:1.5358599 3:-0.263769 4:1.032053 5:1.25994 6:0.31803301 7:-0.34973201 8:-0.27557999 
-0.0033366261906936719 1:1.233077 2:-1.153942 3:0.25287101 4:0.65592998 5:-0.69243902 6:0.80001199 7:-0.044899002 8:0.48971099 
-0.0033366261906936719 1:-0.84433502 2:-0.059255 3:-1.297051 4:1.658926 5:-0.14577299 6:0.44486901 7:-0.57911199 8:-0.70074201 
0.0033366261906936719 1:-1.141108 2:1.285646 3:0.35620001 4:0.96936601 5:-0.69243902 6:2.2332649 7:-0.325587 8:-0.61570901 
-0.0033366261906936719 1:-1.141108 2:0.347343 3:0.459528 4:-1.2873729 5:-0.69243902 6:0.051676001 7:-0.238061 8:-1.040871 
-0.0033366261906936719 1:-1.141108 2:0.62883401 3:0.769512 4:0.34249401 5:-0.69243902 6:0.051676001 7:-0.117335 8:-0.95583898 
0.0033366261906936719 1:1.52985 2:1.348199 3:0.769512 4:0.029058 5:-0.69243902 6:-0.151263 7:1.08389 8:-0.105515 
-0.0033366261906936719 1:0.34275699 2:0.034575 3:0.87283999 4:-1.2873729 5:-0.69243902 6:0.3434 7:-0.54892999 8:-0.020483 
0.0033366261906936719 1:-0.84433502 2:1.473307 3:0.97616899 4:0.53055602 5:-0.69243902 6:0.38145101 7:1.307233 8:1.595131 
-0.0033366261906936719 1:-1.141108 2:0.159683 3:0.769512 4:0.53055602 5:1.173167 6:-0.163946 7:0.145245 8:-0.78577399 
0.0033366261906936719 1:0.93630397 2:1.223093 3:-0.78040999 4:0.71861702 5:0.826078 6:-0.18931399 7:0.35047901 8:0.48971099 
0.0033366261906936719 1:-0.84433502 2:1.316923 3:0.149543 4:-1.2873729 5:-0.69243902 6:0.88879699 7:2.2639871 8:-0.020483 
-0.0033366261906936719 1:0.045984 2:0.62883401 3:0.25287101 4:-1.2873729 5:-0.69243902 6:-0.55713999 7:-0.687765 8:0.57474297 
0.0033366261906936719 1:0.93630397 2:2.3177791 3:0.046215001 4:0.78130502 5:0.56576103 6:-0.87423098 7:-0.93223602 8:1.850228 
0.0033366261906936719 1:2.7169421 2:1.160539 3:2.3194349 4:-1.2873729 5:-0.69243902 6:1.307358 7:-0.64852899 8:0.914873 
-0.0033366261906936719 1:0.045984 2:0.50372702 3:0.769512 4:-1.2873729 5:-0.69243902 6:-0.100528 7:-0.66362 8:-0.27557999 
0.0033366261906936719 1:1.52985 2:0.97287798 3:0.459528 4:0.84399199 5:0.79136902 6:0.279982 7:1.271015 8:-0.020483 
-0.0033366261906936719 1:-0.25078899 2:-0.246915 3:-0.98706698 4:-0.660501 5:0.045125999 6:-0.31615001 7:0.46516901 8:-0.70074201 
0.0033366261906936719 1:-0.25078899 2:1.660967 3:-0.57375401 4:0.091744997 5:0.99094498 6:0.115094 7:0.36557001 8:0.234614 
-0.0033366261906936719 1:-1.141108 2:0.25351301 3:0.56285602 4:-1.2873729 5:-0.69243902 6:-0.100528 7:0.69756597 8:-0.360612 
0.0033366261906936719 1:-1.141108 2:1.817351 3:1.079497 4:0.40518099 5:-0.69243902 6:1.535664 7:0.646258 8:-0.87080598 
0.0033366261906936719 1:-0.84433502 2:1.848628 3:-3.570271 4:-1.2873729 5:-0.69243902 6:1.434195 7:-0.57307601 8:0.65977597 
-0.0033366261906936719 1:-1.141108 2:-0.059255 3:-0.160441 4:0.40518099 5:-0.69243902 6:0.86343002 7:-0.64249301 8:-0.95583898 
0.0033366261906936719 1:0.93630397 2:1.786074 3:0.769512 4:-1.2873729 5:-0.69243902 6:1.00295 7:-0.42518601 8:0.65977597 
0.0033366261906936719 1:1.233077 2:0.94160199 3:0.459528 4:0.71861702 5:1.129781 6:1.38346 7:0.13317201 8:0.234614 
-0.0033366261906936719 1:1.826623 2:-0.84117401 3:0.149543 4:-0.159003 5:-0.69243902 6:-1.1279041 7:0.37160599 8:1.935261 
-0.0033366261906936719 1:-1.141108 2:-0.80989701 3:-0.263769 4:1.157428 5:0.21867099 6:1.599082 7:-0.31955099 8:-0.95583898 
0.0033366261906936719 1:0.045984 2:1.973735 3:0.459528 4:1.157428 5:1.711156 6:0.63512403 7:-0.62740201 8:-0.190548 
0.0033366261906936719 1:2.7169421 2:0.25351301 3:-3.570271 4:0.593243 5:-0.69243902 6:1.00295 7:0.293134 8:0.914873 
-0.0033366261906936719 1:-1.141108 2:0.097129002 3:-0.677082 4:-0.47244 5:0.21867099 6:-1.292792 7:-0.05999 8:-1.040871 
-0.0033366261906936719 1:-1.141108 2:0.409897 3:-0.57375401 4:-0.033629 5:1.832638 6:-0.70934403 7:-0.36180499 8:-1.040871 
0.0033366261906936719 1:0.93630397 2:1.973735 3:0.769512 4:0.78130502 5:-0.69243902 6:0.44486901 7:-0.35275 8:0.65977597 
0.0033366261906936719 1:1.826623 2:1.473307 3:0.25287101 4:-1.2873729 5:-0.69243902 6:0.76196098 7:0.19655301 8:0.064548999 
-0.0033366261906936719 1:-0.25078899 2:-0.30946901 3:-0.677082 4:1.157428 5:-0.69243902 6:-0.24004801 7:0.25691599 8:-0.27557999 
0.0033366261906936719 1:0.34275699 2:2.1301191 3:-0.263769 4:0.78130502 5:2.1276641 6:-0.100528 7:0.335388 8:-0.360612 
0.0033366261906936719 1:3.013715 2:1.6922441 3:-0.367098 4:0.593243 5:-0.69243902 6:0.20388 7:-0.78434598 8:0.404679 
0.0033366261906936719 1:1.233077 2:2.0988419 3:0.459528 4:-1.2873729 5:-0.69243902 6:2.017643 7:-1.010707 8:0.82984 
-0.0033366261906936719 1:-0.25078899 2:0.91032499 3:0.35620001 4:-1.2873729 5:-0.69243902 6:-1.394261 7:-0.79943699 8:0.319646 
0.0033366261906936719 1:-1.141108 2:1.285646 3:0.35620001 4:2.22311 5:0.175285 6:2.689877 7:0.86658299 8:-0.70074201 
-0.0033366261906936719 1:-1.141108 2:-0.246915 3:0.56285602 4:-0.28437799 5:-0.69243902 6:-0.12589499 7:1.21367 8:-1.040871 
-0.0033366261906936719 1:-0.84433502 2:-0.090531997 3:-0.57375401 4:0.96936601 5:0.123221 6:0.165829 7:-0.63645703 8:-0.87080598 
0.0033366261906936719 1:-1.141108 2:2.4116089 3:-0.160441 4:0.71861702 5:1.685125 6:1.180522 7:0.090917997 8:-0.445645 
-0.0033366261906936719 1:-0.547562 2:0.56628001 3:0.30453601 4:-1.2873729 5:-0.69243902 6:-0.81081301 7:-0.92016298 8:-0.360612 
0.0033366261906936719 1:1.52985 2:1.5358599 3:0.25287101 4:0.65592998 5:-0.69243902 6:1.52298 7:-0.20787901 8:0.82984 
-0.0030233270884157948 1:-0.547562 2:-0.27819201 3:-0.057112999 4:0.091744997 5:0.123221 6:0.26729801 7:-0.47347599 8:-0.61570901 
0.0033366261906936719 1:-1.141108 2:1.848628 3:-0.160441 4:1.157428 5:-0.69243902 6:1.269307 7:4.2891669 8:-0.70074201 
